-1.4855408433802948,0.923177906348456,-1.2210004404969135,-0.8764946286538166,-1.7901289324608378,2.302987978281691,-2.704532074830353,1.0190343854860038,0.0,1.3240645755605125,-2.116864354478589,-4.381954289541791,0.13826099050352117
-0.3406211431438499,-0.1897458781316952,0.5843257135593619,-0.19392407862798142,1.2763971261441498,-1.0902870527306903,-2.7460116784467887,-0.6810977520622963,0.0,-0.41884239677095886,0.8655864911123556,-4.011584354881339,0.3641684226861951
-0.28025682659118106,1.7696059257268149,1.9020208778432852,-0.02514604390493321,0.1480720430109597,-0.47353365970567224,-5.614793588812661,-0.59263775877131,0.0,-2.399086563027839,2.4653514817500892,-5.462241388158144,1.7559462879491208
1.812179806923599,0.9018542766115271,-0.6041336823989775,-1.3020695903546307,-1.6867521580069644,-0.9848439147723658,-2.25258347724288,1.8418328796202201,0.0,-0.4888458907634117,1.400782089038293,-0.9975286442499636,1.134637816091249
-0.4511824141346998,-0.10956969877532215,1.107679243456129,1.4534956700590618,-0.5104953553855793,-0.06364855759907036,-4.008493788871037,0.6139565713155816,0.0,-1.668360097728774,1.0475155586064262,-2.5583838535523156,1.824638979905657
1.3778577505304588,-2.0171205803959062,1.8032011243909265,-0.03239672621598193,-1.5206186428360922,-0.07456560193213191,-5.3307473628351065,-0.21001513872833827,0.0,-1.253304873052315,-0.28423956934786676,-3.237351202651329,2.0240547298370535
-0.3813934586090142,-1.401392332738757,1.731425848761774,0.3190480731782183,-2.2525866328326583,2.3377797156574265,-3.737904772930666,0.04725775835961477,0.0,-2.7872981033250683,-3.045261017266339,-1.4422450007638994,-0.7930394947523075
-1.915527087784116,-0.6599809569671611,-3.03152377639542,2.14088566403968,-0.7896658970896381,2.9386803840900613,-4.053823825415113,2.2007843005263723,0.0,-1.2832600900062001,-0.4706630184821327,-4.0931272766109865,0.5440175007758264
-1.535292748307303,0.7992765658164844,0.35677939214544285,1.57714183385367,-0.9450990588377813,1.1793736885507233,-3.873878208647669,-0.3995379906149596,0.0,0.1590370877053733,-0.477759067790289,-3.076232364039284,3.1324671515473854
2.1139211232850563,-0.40360146115109596,0.9584671486920293,1.4072184265898966,-1.2709635711924439,-1.7496732800134174,-4.7106357191302735,1.0853940112411118,0.0,-2.146951931867221,0.32976422444263326,-2.192007405969543,-1.6484723129076904
0.8620971282765171,-0.3939065456603897,0.6492920173393693,-0.39404077487317424,0.28447854458995026,0.8452786424857845,-4.041218762277707,-1.742035700183409,0.0,-1.0867066918783899,-0.267551301647547,-3.0788992299022953,-2.3640166897808155
-1.1281669758995625,1.3684045345907268,-2.4462589029037662,-0.20413480652036006,0.742716068302017,0.9835703868641953,-6.709577658457058,0.5551819956925123,0.0,-2.613223336562924,-0.9681848360533729,-2.7755410418782063,-1.8401255420637608
-0.7458890714613079,0.09013041367120296,1.341455978541249,-2.143063705620486,2.4661599324114416,-0.9195222757618831,-4.121896061397045,-0.27846283976279296,0.0,-1.8761539103139468,-0.6769433408857404,-6.964796013141199,0.6323947963561399
-0.35238481850020476,-1.8940526402583147,0.3083921019301863,-0.2015849235650711,2.273758963997479,-1.7285167048173125,-3.5131909942863757,1.1069180488552117,0.0,-0.5447752707576927,0.1448566972617962,-1.0112232638923082,0.8311320947995621
-1.3637565302061583,1.4120304272386621,-0.16058033325850804,0.04477155680995623,-1.3075407304594036,0.5105507440009333,-2.279529910378905,-1.988023259678155,0.0,-1.4577359008941404,1.7426036862006762,-1.7185115388817338,-3.080694283635282
0.2725006757373437,0.21145157239933834,0.7503707016562452,-1.8523364143268148,-1.3033849692914659,-2.755093790947814,-2.232428543339834,1.1381365288656524,0.0,-1.1101179799764607,-1.6971129019547115,-0.5947760192711434,0.11763153784588715
-0.0007170626670079524,-2.115297204371244,-0.23342816746876308,2.887954348586354,-0.15498781178067403,1.1232728491223531,-3.4651232427409404,0.426371280222604,0.0,-0.2765347460374671,-1.4420267119557701,-2.2644829205796038,2.1831883005820103
-1.5982836152649968,0.6081006494916149,-0.45703545468918155,2.18934745302579,0.7497632767338753,0.8254462502377445,-5.849112500269162,-2.6400565215536345,0.0,-2.7213897608373854,-1.488027863349398,-4.9903275188158505,0.13365415833240443
-2.192189069261967,1.2449381507733892,1.480963672309841,-0.43469120486336366,0.5784778619449903,-1.8163438068619993,-2.730726047723792,-0.9618237847877721,0.0,-1.9267389585952919,0.7318828237488966,-4.238928910520756,2.5648072961645147
1.341691232570666,1.1702903235841708,-0.5851303331773957,-1.7094722656915786,1.6443836439317188,-0.49196905586079226,-3.7018460351325317,-3.620622404956636,0.0,-3.5829730667664657,-1.1678288873068963,-3.334483689095377,0.18579911268118898
-1.3821618528543937,-3.19124703375012,1.5495980503048272,1.6493730344637523,-1.0011163806581436,0.7396782443282205,-4.007708129791064,-2.021426507622573,0.0,-2.5842988970783383,-1.3873989614466842,-3.4840292224826777,1.6614730924845125
-0.8021842931356831,-1.1592706294770683,-2.1352390295498265,-1.0754189223102442,1.1065964267693833,2.8114053738478177,-4.6267915745420405,-0.7056243030939845,0.0,-1.550674358958523,-0.7479386489484323,-3.0469224236691224,2.095283090531465
0.08887584307753248,0.3293658260978498,1.2527578443582679,1.2653735063822626,-0.3175192919158749,-1.1245056674402027,-6.181672889066735,0.36932065331134567,0.0,0.3902082270351523,-0.32144063404851914,-1.2096388729514953,0.9693281545934508
0.13792346822063112,1.1152617503043885,1.8667817927216788,0.7246077146006473,-0.5144294833521773,-2.437681220109217,-3.6741955521539595,-0.04488709314275165,0.0,-0.015218575737772471,1.7935200615807168,-3.012831800836341,0.3064240428632641
2.2045993266030433,1.3359600112635992,0.008430609675114083,-0.6037270251137545,-0.3082573293375151,-1.2970495983955526,-3.9723945526179905,-1.1648653926690864,0.0,-0.6623813934416138,0.7470306266573206,-2.737407057246043,1.3380098364563608
-2.0495660145490935,-0.565622465742441,-1.3184452460754224,2.1103687578903645,1.7916327901262628,0.8803116208826938,-5.407902721943698,-0.5155494597466719,0.0,0.3439682064679531,-1.4705487324299709,-8.408143169394378,-2.2766247507171533
-1.0461123252227003,0.8142883149782234,-2.0211264171192735,-0.8279888192149512,1.6806149549137368,0.5046134066938409,-3.994257808144836,-0.546428838270664,0.0,-2.1930656100378987,-0.8725758736958379,-5.3005648201341256,-1.5224856860042209
0.058734774752308525,-0.7498032140304011,0.10084509532376554,0.7483424117855337,-0.5362401193492408,0.15254406992430602,-4.769124430607847,-1.0343731431658485,0.0,-0.33778332533016214,1.028678484910197,-3.3293314290518543,0.27986682357462517
-0.4689409859821523,-1.3754976891067223,0.6853571132857644,0.2076192369886951,0.2949855280536401,-1.044767804735068,-3.0369195629272343,0.8097532448416652,0.0,-1.509553264226181,-1.3146814467939467,-4.444289190930343,1.5359523595077105
0.9058209111884326,-1.102643947415437,-2.2984880940480945,0.08546842289611711,-0.7802852634096281,1.1538878933599874,-3.771601169031181,0.09133658480008641,0.0,0.3157638963104605,2.1918771596447457,-4.415199320202026,-0.9250280042341398
-0.912195573926814,0.28281169047469046,0.49408545399262827,0.7168431783139685,1.1193371590004009,0.09190093296377755,-3.1671957655751948,-1.8806057703232506,0.0,2.138601882288308,-0.33185718981919815,-2.7055213218443463,-1.1517684302755387
0.18057658785920233,-0.8383687559817894,-0.8197914802288739,-5.508187709523549,1.7737766657231824,1.5627043940613676,0.0,-0.2932073448078082,-1.9350526325816897,-0.4822616637072432,-3.4449250097668886,-2.525355303100647,0.0
-2.7695938438391607,-0.755005722327428,1.4603195541294893,-4.607209707359332,0.9644956075965179,-0.769882259184712,0.0,-0.3788735290540757,-2.546029244503043,-0.8954164035804394,-3.0458160099840117,1.4560959154667488,0.0
-1.6903187230603713,0.10946282738075909,-0.197533514761878,-4.835664556444927,1.5855312345622017,-0.06598581999786884,0.0,-0.3565786174174299,0.5125448332914746,-1.1793835076892407,-0.7780553553696236,-1.76046912150022,0.0
-2.613810984177807,-2.44640032444076,0.1606507527412343,-3.6638604536011914,1.7461705772721203,1.9198292271977622,0.0,-2.370558743222734,1.9176256169640709,1.265781167053601,-2.5668499451709854,-2.997122115184786,0.0
-2.081877330844433,1.2452528850526876,1.1780243172297629,-4.144429509048378,-2.5151720140998695,1.1148618098967313,0.0,-0.5431544796156894,2.8583904230453974,-0.909204199665541,-1.9944339758265917,-3.0563275367348806,0.0
0.375854992406266,1.9869015516525086,-1.8966173491473248,-3.885148821736743,3.157205694112015,-3.606707233405373,0.0,0.6273569299029211,-0.47686044829890595,-2.591010681223284,-0.9560328134726728,2.9540433474564045,0.0
-1.2572444695642455,-1.1463674421704801,-0.16497948415930122,-6.811035266277464,1.6183411518978017,0.9637443232340795,0.0,0.13549255295836155,-2.2211695587763316,-1.3597492456515765,-3.6989608232116,0.11434690634788906,0.0
0.8253544228817179,2.405701059342932,-0.5053822619236131,-4.340967718741808,-0.6768816662617805,-0.7011124585631539,0.0,0.6969319821233497,-0.5724521812208846,-0.5063350475956255,-2.9904310743106346,1.8575058755517564,0.0
-2.48663483560122,3.183489213948304,0.022677725515427478,-4.221720613151034,-3.3446834411492716,-0.027873487707494787,0.0,1.1113508675990633,-0.2652613516418977,-0.6644017289536451,-1.5745118926923107,-0.7380534862622112,0.0
0.5299668815291214,0.3537383395260135,-0.05441910896616424,-3.387773354730555,1.5644321450660557,-1.0831513732161626,0.0,0.4163209610921646,-1.0134629589654696,-0.9633397722873699,-0.48968218573909134,2.001366299179409,0.0
-1.2800101619280129,2.6922729065737916,0.12207470752943914,-5.650929984890168,-2.378012881467795,1.5177652191812256,0.0,1.9579148613961161,-2.005389480890446,-1.0239266105073943,-2.3372585149484446,-1.563287039618061,0.0
