4.118592553070201,-0.8236020562530838,-3.1731497559016337,-0.6045112247103301,2.3481929667500974,-1.6045515115893405,-9.47512664068935,-2.9376565757896764,0.0,-3.039840814435522,3.8311749048309838,-4.11065909220079,-4.417315481852317
2.3067626320629278,0.5374457723810775,3.5673057992514052,1.4612666775940255,-3.7057919478411954,-2.520276011930966,-2.467080249747274,-0.6890327349269112,0.0,-1.9619354037158943,1.7371258004831565,1.1561989597784654,1.4055166988926373
0.5443052362684989,-1.459876738813388,-0.42142080336326326,-1.597355889407671,1.1376721558835838,2.927358785795417,-3.896699347334509,-1.768975471429922,0.0,-3.4587437344093086,-0.7049429648867956,-3.8781292597349686,0.6720872673654028
-1.636780619961958,0.18185235629377464,-0.8296046328822567,2.165771735225991,0.5741859966887154,2.078492785146142,-3.59549668460829,-0.7866802454584603,0.0,-4.403030035815937,1.8319597365928797,-6.7168239105119945,3.822247115836473
-0.9848813579049199,-1.0148545736039554,-3.4430063759314833,-1.8729576027942612,-0.30346047611351795,5.413354882228176,-5.507296979712916,1.6402499539267252,0.0,-0.7995556518593083,-1.3235039062692873,-5.2180791729815255,5.869709329371688
1.55133744602389,2.097241864625605,-0.30831493074814686,1.7255090049958273,-0.4144043864557373,-0.3624843831550818,-10.370841759499278,-1.9926228037891731,0.0,-2.0721024871135123,1.1673680547738814,-5.422547671448876,-0.07499706239389338
0.4688454816542622,-0.030108668585320526,0.7797333528981573,-5.211084002829826,1.7189826842036486,0.003787942019840007,-2.563347844944848,-3.2388131195640852,0.0,-0.9890253347717263,-2.529929026163699,-1.2018752458241335,-2.7452491350425636
2.319942726053198,-1.135590193309059,-1.4474361754268634,-0.08699067018694019,-1.3247727862010859,-0.09183534917405502,-1.394025432829574,-2.5931053451423893,0.0,1.391167342862834,-3.0278590065813478,-1.4401960578649005,2.9894118227112996
0.09271038643760475,1.08098222711176,-0.5813749743480147,-3.5014822938178227,-1.3645497752831897,0.2055588304922778,-8.247277611449451,-0.023728533614037206,0.0,3.770237393286597,-1.9118885424284975,-4.396769875792977,-1.0123116408619472
-4.124794566679195,0.15982463015641585,-3.084556309008126,1.284366139212959,0.3853066326866311,0.6604143770863653,-4.150123483932155,1.8700771057377925,0.0,0.9896238325134217,1.3131146486161402,-3.864922879327092,3.528153262021479
1.1494235233834755,-3.196058900829664,1.5372628027272455,-3.299842592491832,1.2126364992016183,0.5587213472188582,-5.899373262707883,-2.247514691616528,0.0,-2.5890272541565946,-1.1722036295520595,0.03404981984992288,3.8052354059187357
0.5537691779222381,0.25929984088966224,-1.9466362061324334,-2.250617218883821,2.4821062247657935,-2.159018873486667,-4.524199158688501,-0.19370821840986147,0.0,-4.407219531966703,-0.5625797826046232,2.430328647772941,2.583675291858101
2.1246211282910625,0.5957958410409172,-1.132706027800623,-1.0368578965159396,2.4496842910632153,-4.833508954065946,-4.300468433828616,-1.5628538657762312,0.0,-1.6054219833338437,-0.6477564623251462,0.11248477394515434,-0.892968144027918
-0.32398576432184434,-3.7102440007314725,2.573723747640523,1.5659439675241607,3.3225543338205714,-2.5143770067747337,-4.45826291074836,0.44458756512593545,0.0,-2.5972396035871137,-0.322300267803395,-0.2527649861318847,5.7211904398668505
0.7733726242434813,0.6656017014700721,1.0480994859868697,-1.931588674222006,0.3946038885907302,-2.601647901006867,-2.4638552774749116,-3.134575352938671,0.0,-3.215461140294761,-1.1656679552571771,-1.896166651110268,3.3462610570557128
-0.40284928569833606,2.0733728768565864,-0.1238072380838181,-1.5146813077782346,-2.253369044763335,1.2106072551860283,-6.534306493701181,-1.6310371143247058,0.0,-5.938612813635131,1.3542088917369919,-0.9559079557238299,-0.13330572428046822
1.0026962896477074,-1.8971319777031,3.0895693626609875,0.39295210512732975,-2.3928760803231666,-2.880801645773292,-4.057622209793243,3.508091686080887,0.0,-1.2695009235536425,2.4143947503644427,-7.019234511200096,-1.3777319994378978
-2.3183375251524394,1.9941480050583675,-1.63353340028783,-0.9282059229702667,2.5862024564165287,-0.054425562283802055,-3.9064729306518595,-1.5995078404830594,0.0,-3.6358660674753156,0.3352117163486585,-0.30986722473498374,0.9488298894242405
1.48230446783394,-0.20813056053964624,3.441625839110009,1.2431003194012171,-2.8320799032817394,-1.712438996642041,-5.0545714914079,-2.212374537753988,0.0,-3.4921210247270547,2.0958736742531623,-5.296257107390738,1.6884758775739508
0.9155034338891939,-5.030644498658959,-0.18188793898979938,1.0677886344305119,-0.8166244753219831,2.961280404088691,-5.661884275961226,-3.150920185023388,0.0,-1.0138747533624177,0.5835576416727735,-0.46217476410008956,2.564585230875614
2.501918222716723,-1.02918033437584,-2.602913206028191,1.2103856268010604,1.1367750795483451,0.6777576622095143,-6.572675536118789,-1.5859583992522857,0.0,-3.8293791925280267,-3.130967323128794,0.09538125499139875,-4.624667175372616
-0.07237287841523575,0.06853587224710021,1.3925917031951254,3.6226258504246234,-0.554604900674096,-1.8345679622919773,-4.763666566146523,-0.709449621714567,0.0,-1.0197690429126354,3.4072945529203214,-2.1528318495322742,0.5521079211254682
3.62571438246593,-0.7102769010054082,-1.9439827421931872,-0.9691029861132905,0.05631660745374306,1.2940410742110418,-5.036140501602712,-2.8725289909788563,0.0,-0.7841644905834839,2.3038224058502426,-1.8214863782199875,0.4921467293572138
1.4327822511808954,1.2897163673407703,-1.245618013593012,-2.0359854663915415,2.2174771226886287,0.0798401039067685,-4.779551956282413,-1.9922317705267214,0.0,-1.4289560261756793,-1.840638916516252,-1.6784545998465012,3.5239611301741087
0.6510637278219108,1.2153792180607665,0.2230302455744888,-2.119523597537908,-1.533403166691699,1.1539934191108696,-6.2215069585991785,-0.6717481831592731,0.0,-1.86371008046419,-1.4028488544305608,-7.1969291607617185,-0.38902040926998344
-4.023901970392558,-4.247668032286152,2.3639191624071088,-1.8824165046606396,1.8805203204597383,0.34333499442899684,-8.225260017838028,1.0497918583238603,0.0,-1.8769938127496728,2.1471223348309185,-2.3824481570970364,2.7744384897560272
-0.3875149909521113,3.8045744980871903,1.9866007017453762,-1.455659486637446,-0.5234370710619821,1.3805012893036044,-6.534358789157089,-3.3400385231975527,0.0,-1.898912341947412,1.0625447614914223,-4.727654137727143,5.467321357472903
2.452768902369483,1.7932302644755818,-0.5378706900937984,-4.173555507461847,-0.6827138436148971,1.5799778263835722,-8.328663520337884,-0.9983853878645753,0.0,-2.337239023858281,1.5331185715740303,0.46193515603459234,-0.03781398786023434
1.7784354000395637,-0.2393821343086241,-0.9834303359796129,2.034963669287654,-2.1680317879501656,-2.7286269976679787,-3.432415008952044,-1.8138189755630305,0.0,-1.018690731682826,-0.6027223338895294,0.6307744428035839,1.1397140981116203
1.5291949047959796,6.848750365613295,-5.121174325383936,-2.939951363217356,1.9461038869968874,-1.7512457395878798,-3.8538732656190993,0.2367214678927186,0.0,-3.7080961755434845,-0.6370654993320567,-4.364698781763256,0.5962242199104136
-0.22775455678576884,-1.7273777114866926,2.4282871572523845,-4.29434256743941,1.6014056616500587,-1.2258828138969775,-8.620818563868513,3.4165187204878054,0.0,-2.5235407986431553,-0.5035129468145624,-2.7158241139157413,0.4743743008572175
-2.7905259166235274,0.5541599379193185,2.4675674386893864,-2.1861210798312216,-4.248339103030356,1.824396073213085,0.0,-2.104370703180656,0.06649651860230861,-1.5923987352111406,-4.021664909786864,0.0,0.0
-0.6340798644159357,-0.015957880976487954,-0.8639305480608412,-6.571862758429106,1.6936686266233347,1.8675189105313772,0.0,-1.5202827782776631,1.6659307781893464,2.6684396627099316,-3.6321447974810055,0.0,0.0
-0.7315455116473657,1.050571978376742,2.1994689037201325,-7.004301612231106,-1.2723650214493227,0.2450891287570065,0.0,2.536927830844704,-2.01083508725885,-4.730716238724669,-1.3572837022509543,0.0,0.0
-2.9091488531386482,0.18733812444382117,3.2651846400446605,-6.165602685426204,1.9144754081325825,-2.6903541075416344,0.0,1.2631335174271634,-3.8019090242337703,3.2310331287829333,-1.6932178643627043,0.0,0.0
-2.2382252505704328,-0.5721560502305237,2.488893111079476,-6.516265706539563,1.272807228067074,-0.5608332164401396,0.0,0.23737915791735417,-2.4435516843139085,-0.6025273830855734,-2.790569124936759,0.0,0.0
-0.808869803613221,4.51906781515151,-4.6502311798390945,-5.569125065027917,-0.15644558386676125,2.674026132491653,0.0,3.3987234755387914,1.707510457990178,-2.165280605404715,-0.7687722020313018,0.0,0.0
-2.1145256945369546,-0.2113805859807977,0.7466544068190096,-5.519211662039983,-0.6398430761751623,3.0007489691466374,0.0,-1.326530143130828,-1.105394318813905,1.207821563403578,-4.783223307711368,0.0,0.0
-1.8258200403038987,0.29732694226044876,-2.6868294488344695,-6.389617764114025,-0.26257845125139406,4.418665606590079,0.0,-0.8227411587398015,1.382682257702151,1.9201256714672919,-6.2108941117404735,0.0,0.0
-4.569898410320198,-0.09086200328568794,4.244976419146011,-5.62549842468098,-4.073123895977866,0.5802529012531878,0.0,1.7338757377065808,3.7530917949906533,0.08364932943321031,-3.3920901261047427,0.0,0.0
0.4102638607027787,2.0122160462592453,1.7653724461394722,-5.7734150084652995,-4.904382427755119,0.29562038062452206,0.0,-3.9475340585253686,2.578363461160272,-0.633464882370087,1.785335998060077,0.0,0.0
-0.2032426843327966,1.5901726056891183,0.8209732472699443,-5.407326542295078,-0.638932944073301,-0.15582160268878556,0.0,-1.5125337650006214,-3.312671968594498,2.0016328177291767,-1.3682761106131118,0.0,0.0
