-1.8961283024567297,0.6398701765834129,1.5612758073645938,-1.055954427853569,1.0913286921150847,0.02062658736149614,-7.178679269393538,-0.2066598233886822,0.0,-3.4373903525734124,0.31095122378229,0.9645453565609934,2.3702226371538533
1.1515190668783244,-3.287948075026595,0.7709987903561767,-0.3942359017814076,1.531562435338598,0.5400260533604753,-5.954567735820293,-0.07972375989254409,0.0,-2.052795020561745,6.133554284700422,-0.8817564873098536,0.9676052381942711
0.6178557513860579,-4.751256590720773,0.37619883611119437,0.7627592006382382,1.1121426684198652,-1.8722020267740167,-4.071135893009699,1.5814364045437055,0.0,-1.6612224660959711,-4.056493352952349,-4.777744704871526,1.4701179077168411
-1.3200175683421553,-3.5176737744650644,-1.2774954267139176,-2.97784252548152,1.4734900346015318,2.706783971864098,-3.413155628139088,-4.8409209433972435,0.0,-3.043950016393054,-2.174585960660073,-2.7757472664913205,-2.844877367304108
0.7958102350836297,0.7386794868744183,3.126886684109797,-2.47128206209611,-5.5000167998413305,0.847456039868403,-6.530179955586826,-3.115844060030922,0.0,-0.10755437572976355,-0.11784151679936039,-1.0804810634705737,0.22937088139756237
1.6954698360452605,0.7136033843169678,1.3546816273763151,0.30405592295684075,0.7290378792878189,-4.140433485818098,-6.357238390733319,-4.215338034123171,0.0,-0.3177479084730672,-1.193947627782933,-1.2907723842337844,-4.5977613722593365
-1.0007002012107566,1.9994115732021693,-1.0721916671760308,2.785602191079458,-1.3752271703249614,-2.1290444297189524,-3.7268227150792725,-3.4162647461714615,0.0,-1.4346561304022043,-1.3436997301583968,-1.8315429149231668,-0.03234975453456603
-0.5625874892477561,-0.6324901545528254,1.2939680489769039,0.290073190091504,2.6804638202118034,0.4174144167761597,-5.756792584913797,2.0551174077140417,0.0,-1.1126138435023052,0.07299655547706276,-0.22571387438905582,4.245086040682393
3.33629044756896,-0.9710758921454727,-0.7465914688609322,0.47871877391167195,0.4680253419054331,-1.8126373052779994,-5.378691599973667,2.672679769111351,0.0,-2.7429220415769637,2.1479972919284167,-0.2709646929172012,1.9328354466822053
0.40364589640518245,1.6769935191773013,0.17370591423963755,-1.0283728570385737,1.745504155701426,0.172160222996238,-5.292716605141043,-0.7787637705705137,0.0,-4.930155049895749,1.940232068646356,-0.458158595506492,0.8347397396668874
-1.1342608908019758,-0.3051181160556863,-2.6593676012302807,0.19246261636943185,0.7902903997707684,-0.29932325182395486,-5.329876962762691,-0.654824249951496,0.0,-2.0331112451212445,0.022920830758182565,-0.779935238421931,3.9906932165847318
3.148503163093963,-2.1464547353999026,-3.472392558934087,0.41297141456699055,-4.269023442168675,1.7602306607525045,-5.687205604526841,-1.7113790205035087,0.0,-3.460941439049054,0.24437301120909216,1.5537382089581637,1.3214577178311924
1.345129014417755,1.175554551650602,2.7846200009148245,-1.5728871181013582,-0.4341369352001443,-4.0918760336560664,-10.407210099796334,-1.187500555006128,0.0,-1.339655759498206,3.160018689738535,-4.729059951283967,1.282220354616666
0.8135380635333421,4.028839612381998,-2.5310832971742965,-2.599034509975348,0.7270012282981242,1.0350115151197952,-3.4343416086513616,0.12277442981444278,0.0,-1.3522106754088512,-2.045607129939272,-5.025783474025866,4.40334953644485
3.7198537674338232,1.2199056712084462,4.770733877948294,-2.0279443325877,-0.8853810617853793,-2.6256273421563843,-5.4201008828481365,-2.7059476142708654,0.0,4.021009726495544,3.320829207031909,-2.1333134723438882,-0.6745119201574804
-0.0006627948431614161,-3.968177104961038,0.6019044602411039,-3.7740265670503854,3.1067903937782186,3.7306945115563375,-5.771086695558496,-2.4403533339806693,0.0,-1.4020998394578028,-0.5810971705839455,-4.018592344505019,-0.08483418501379829
2.4612060079258624,-3.395734189517185,-2.9216643555132094,-1.4947585990466512,2.5806819255770512,1.5489623388828986,-3.4479052960644134,-1.7301594853233089,0.0,-5.617939862215999,0.24005800500855215,-1.9118415200046797,-1.3147603181683765
-1.4478227542676347,0.7932505244228375,1.213284091396666,-4.714744116390912,1.2556432718248804,0.3455151621014882,0.0,1.8155246222260524,-3.9499736486395878,0.022445596179322982,-3.029591830763726,-4.27870979415037,0.0
-2.4714348060280353,-0.09861948696405198,1.7489398359656998,-7.782998131447544,2.385706110593816,-0.2041753809749894,0.0,-1.7502169504852698,-4.312900587499344,-0.3584049807291964,-1.4344249335018568,-1.857681644391161,0.0
-1.5240332507628358,-1.4138401719402511,2.1588143904992525,-5.333223295980525,0.9777873399628684,1.8089783531811687,0.0,1.4152782630348029,-2.8154622998461676,-0.22266527400101693,-3.327491800777261,-1.633435819254017,0.0
0.9358837986265489,1.4372391457088365,-1.091757586372274,-3.1003972647346507,-0.450701273118133,3.331710591742107,0.0,3.1520556327469844,-2.6643453358504434,-1.3439416884618212,-1.1912621757849817,-1.3956782581611644,0.0
-0.20013262763501247,-1.1344809288692903,0.4551827410959653,-10.286773622352758,1.24749601150396,3.5286986748667037,0.0,-2.657842728892156,-2.7951861410969707,-0.3519867013418576,-2.7107345868656254,1.8371234875153322,0.0
