-1.0527007216402346,0.6611145668453147,3.0250738548555245,-0.7561926438799388,-0.8405727701339691,-1.3500069165617499,-8.343366449321639,-3.749402990661922,0.0,-2.3138050921996087,-0.9498098897535273,-2.600224059220602,4.361714662987065
-2.828363091116516,3.364882011212957,-0.4988189745235341,0.5274691095063675,-2.629414147174098,0.8765183787607341,-5.841926733799833,1.5055121598431136,0.0,-4.072997602552862,-1.6809768137376855,-0.23544658736390903,3.086553506382833
2.829935206129603,1.7953108528458934,-2.7221678609127045,0.9205944036646135,-1.4453804214526376,-2.6044118194150014,-3.0073365694074354,-1.624269419440778,0.0,-2.601013749580247,6.0728987032899635,-4.975373540837639,1.497612783827842
1.7617529055029335,3.4472285210129576,-1.2465361097111205,1.6509684307159793,-3.6892263047619185,-2.2784089968419194,-5.425771155424474,-0.4938588840250487,0.0,-0.5480751379073155,-0.33055542767247115,0.3231184813462644,-0.6507058552535019
0.35828240743815426,-1.8829673773660418,-0.3887486407259041,0.44150429230369775,1.5942640527748817,2.838577988424466,-5.438610390714725,-3.73194044876234,0.0,1.4174817975599563,3.2625135081445773,-5.273724486691637,2.3704207957522856
-0.7546958420876863,-2.6355878292683523,2.0857210416454346,2.3869425999765514,1.086900026716205,1.2495008486627133,-3.7312524400176628,-2.565981726862259,0.0,-4.6363042121874205,-0.4359109991126957,-5.04937193589886,2.7305797640848612
0.28995526385969883,1.0233840520775228,-1.1889981281567534,2.4191645470063627,0.9854020132424437,-1.2981261936826018,-4.481944661256945,-1.7989945209195413,0.0,-1.6245287512410318,-0.4020956983829237,-0.10610901939008179,-1.4550039837369704
1.8883431496365117,-3.317231798233024,0.7215079490783367,1.5444896428625017,2.4731913453255254,-2.449945775256323,-7.2728276299244055,0.35749694862906556,0.0,-1.4749401964615652,-0.4533742065261412,-3.86593889934198,0.4132581313755912
0.38112713457705494,-3.4808904512207173,0.85279621711403,3.8367188420162246,0.005266897702398665,0.8221348620847149,-6.894624887458926,2.521288320261171,0.0,-3.3928239335227897,1.4392170052416582,-2.2359384505016986,6.662844890918975
-0.2665241157897645,-1.11211689717395,0.7954287492881532,1.4116753940791322,1.100796116160425,-1.1400701998745126,-4.003071550379273,-1.2171840596681154,0.0,-5.530072191214947,4.82955583683254,-4.172196607120371,1.6653091176764416
-0.6669687736439143,0.651419585469866,-2.6368032765270293,1.2986376050502866,5.190096099393479,0.8248284914717607,-5.870754096178108,-3.140389472700432,0.0,-4.195627166887836,1.7464430174304837,-1.0844731003922465,3.0860298749169783
-2.075847578080747,0.343338840622008,4.963742760804588,2.6579199482261355,0.16167094041845242,-1.3133256978513845,-4.184396413465278,-2.4181509101209686,0.0,-3.7768260913415115,4.139344367995893,0.789188976679192,1.7545238121334321
3.7465112743604716,-0.4630061827620136,-0.4899619842604784,-1.6551386357124513,1.9462881851536802,-0.4882781272103206,-6.566027889424347,-1.2191518563918542,0.0,1.0538794499902173,1.1229292109763518,-0.9263208443765725,-1.3929769048519505
-1.3101659232596823,0.0373980513531642,1.7671468345023,-0.12711683232816753,0.23277745725353444,0.6116637089534467,-6.597096118410273,-1.7835135456225926,0.0,-4.9336500743319345,1.0568175290192687,-4.390175286741902,0.38208626838630727
-0.517591258604175,-2.4600819130578317,-1.0488971800972464,0.21658738940259892,3.6853933748349452,-1.60653784718692,-4.462633990109658,-0.6032836315909299,0.0,-6.921944587811625,1.3523881443861634,-3.356382229762081,-0.2997186034273323
-2.497107618831381,1.415217576288154,0.20433078313541553,-2.5950716937636185,1.4707253495454442,1.4091636660660798,-4.638428033510563,-0.09007884301935558,0.0,-0.4553282901522025,0.7516011935977429,0.4744815401639184,1.8979938303717265
2.1461903182975184,-1.6549131353597917,-1.010464000493432,-0.9568381136741848,-1.8057570919234938,0.8266267750463228,-5.439880629939302,-0.9786588397152935,0.0,2.394390160763549,-2.6025290673048493,0.6613235291586319,-3.4484846919157337
0.8087928931585769,3.448648836322988,-4.202873852467277,-2.8232829598446645,-1.42637320698619,2.6016197497643203,0.0,3.205157626878843,-3.1166004815762585,-1.0845377939316287,-1.275482963591111,0.0,0.0
-3.843342613599133,2.1207085396710044,2.90618810726847,-5.12586749933966,-2.073156153729169,-3.735692377085768,0.0,-1.0572660809179422,-2.453424297991129,-0.8117120702789787,-1.73438768169624,0.0,0.0
-0.8686005357213248,0.050499164790617945,1.740821943660431,-4.509996467796286,0.6683623054807633,-1.24366007132462,0.0,-2.0606592610547194,-1.7724440304679274,0.43289083785027194,-2.3396600964995558,0.0,0.0
-3.1468897882139197,1.2862554690392134,1.134782965821394,-3.0852701969881386,-0.6374494554423845,-0.7527455763734279,0.0,0.18176709596415308,-3.222392063420039,1.1271657311597614,-1.5064213354371336,0.0,0.0
-2.866733360802428,0.7222697067670444,-1.4089753198419377,-3.2223168093866446,-0.6809800643204202,2.722562582516143,0.0,-1.066631513127485,-5.003829120899002,-0.056286003162631326,-2.822958923133834,0.0,0.0
