1.3426977417433876,0.593079340908289,1.6024091924971586,-2.3730947512941905,-1.8346066751794305,0.8294390856649995,-4.990022193656259,-1.066979355198637,0.0,-0.4831555037684386,-1.4514893524511026,-3.4811041226422472,0.6134046335351299
1.6723230000211984,-1.1494932669949336,-0.31832585988143697,-0.4236897884056048,-0.11360086547554597,-0.4503769234165396,-6.098543053138655,-1.512969543119029,0.0,-5.899624544551974,-0.8576248575954761,-0.31828949614581037,3.411454850739476
-1.907190381359163,-2.0897747846208428,-0.1801575299717515,-1.3923316547706603,2.1182916310573585,2.484976896452338,-3.4160493244437564,-0.9458603237416239,0.0,-1.5859058129192074,1.4357823373715173,1.0007476002532418,0.5670714659051026
-1.4751032196512757,-0.23156499753781293,-0.5107128790304176,-0.45677490875175425,0.7847739833423177,-0.4720301763568922,-5.45356319641428,1.9446931314555098,0.0,1.054241866271644,1.1031527309080262,-2.1527920730129453,0.10112288851699416
-0.5631866823402535,-2.9817278548172377,1.5437485003840143,-1.1135639003539661,0.6784418558309462,0.14966469811516198,-6.83877356481908,0.9190353560148251,0.0,-0.3967139574455949,0.43232564376151683,-3.3166625580417066,1.6743531772675688
-0.4114778579416482,0.23852401187199504,-1.6251641019370011,0.7241884649530919,-1.9133154417358595,1.2320751588405319,-6.835409030882372,-0.42717327203104155,0.0,-2.1499489803349863,-1.5058710169367826,-1.6687395730985781,0.9348371739188613
-1.8069806941151116,2.908120159268614,-0.47114869269079923,-0.5376524584111126,-0.16119266626115625,-0.3796801783381775,-6.142855071917478,-3.2086484530495345,0.0,-1.8915035479638094,1.6325338344709226,-1.3182368773154758,0.5470124409615087
4.109502956516776,-3.4029431595974198,-0.006386764117432275,-1.2238219118132796,2.4342714002419537,-1.2272931037624357,-4.365565020006557,0.8666904914159208,0.0,-2.360445375340396,2.902603975302328,-2.71446022497559,1.5282398602298735
0.8760567071003688,-0.330382358730571,0.3462197634676571,1.539966830959806,-0.01784379125608402,1.2223760856871997,-6.033396216921276,-0.28745370948639937,0.0,-4.1888513666948795,-2.229445552910733,-1.1544670836737692,2.927726960104564
2.3065023417625583,-0.7593672716023739,1.8693954024369375,0.7889450449455395,-0.7425583480999238,-0.4026486058233681,-6.13954537632183,-0.03999978389476378,0.0,-4.9411985029094385,2.0117529539185917,-1.8807367981006664,0.3299308427234027
-0.5391791038147545,1.0097722018445314,-2.0663301198400115,0.16616591706122058,1.86947654719144,-1.5962877011167023,-4.4024534944839555,-1.2524106896439764,0.0,-1.0317857660229768,-2.3985606568313127,-1.4106625730350524,2.108088238370561
0.21723300529620976,0.057318209465665626,2.9884020899979036,-0.4464394884266205,-1.8090106628597666,-0.25622958195714796,-6.7311261472955755,-3.3419535869608676,0.0,-1.5249243827380687,2.3195102436948387,-1.7533844617077885,2.6289376120283783
0.25534842979132,-2.926489031889575,0.3839862591792397,2.143772487517154,-1.0484967043234223,-0.8137177080726129,-4.882718839308237,-0.04201197195027361,0.0,-1.7362553573691504,-1.2699010701950622,0.28624793792881353,2.251045831295969
-0.7719229912057135,-0.3197750010157166,-0.08534315213085931,-0.5761949637625877,-0.6912664490072288,0.8993072171195182,-3.9127276649507965,-1.8543252607204688,0.0,-0.6897275240691716,-0.2193947087900763,-4.14423901423481,1.649360305701521
-2.0251353773152707,-1.506697782178406,0.6507984642167414,-0.9805875890988275,-3.001830228014208,3.7163281206997962,-5.066148512259103,-0.7917734562568861,0.0,1.1372712704811134,-2.9043692819941525,-5.5976513099603125,0.8337357100701663
-1.8011078479045743,3.6427255082210324,3.0146408346806157,-1.5400185084171159,-1.8856931418916647,-0.8408713522181546,-3.3898972204724407,-1.5404193953043053,0.0,-1.1774006335166012,3.2428592333230557,-0.43738797690784703,3.594451142468156
0.1875186610256333,-2.0431656839068877,1.1979843098947094,-1.3384132906492603,-0.14435623202925021,-1.429237787199594,-4.561736784876902,-0.8692440687570563,0.0,-2.9669093273084632,-1.4691592283769277,-4.7976603190484495,-2.4205408027347928
0.49669635042372184,-0.3167056741739359,1.2461844519120275,-5.187692771202999,0.348879032048137,1.9148033951143568,0.0,-1.0303890468902468,-1.047251176043848,0.14431192400943307,-2.3125299582873042,0.0,0.0
-5.605412355233091,0.18605915348835056,1.508310324934297,-5.940968715603899,0.42665200850482965,1.6689351899648845,0.0,-0.9950948119765518,-2.5678888270007594,-1.4986193130713732,-2.034735570195194,0.0,0.0
-1.3135666637266155,1.680509095547374,1.1250364676318505,-5.20653018766125,0.8819599191722631,-0.27022987842582213,0.0,2.616104824873988,-2.7819247536865555,0.22332316707957608,-2.244466897688679,0.0,0.0
0.035464456172657234,3.8065498992367757,-2.3533378391571764,-3.594561124919489,1.828725863958507,-0.09461790089106302,0.0,2.308755708306997,-2.751131057998522,-2.289194251437872,-2.932253307720004,0.0,0.0
-0.5181223757305724,1.8862093415055667,0.3196156230408992,-8.12247118583001,-0.16724206817360282,1.863182203103241,0.0,2.139128949753463,-3.072389292885046,-0.23741634901456435,-2.5197760374119653,0.0,0.0
