-2.4312688757069134,0.28481866928940475,1.9890913729528175,0.733578903843018,1.156966637868395,1.003798173905314,-5.629913076611897,-2.7480047685272444,0.0,-0.6344603363680725,-0.8164617821547637,-1.8953120224362887,2.278252695302521
0.322840858317017,-2.2405394905722273,0.4415654171573787,-0.07573701684489989,0.24992364982493964,-0.3692553027472808,-4.487450645265617,1.0998858019152509,0.0,-2.017008593757504,2.7478427968472054,-1.7035069699819583,0.563744049061214
0.9848868295738407,1.114972849940386,-0.8709532349891322,1.055667463982047,2.4732774173399883,-0.8502560414420621,-4.764923125608473,-3.84635763395511,0.0,-2.1523455334900428,-0.09771417016421398,-0.5862536584304571,3.4475715065267765
1.7514564001731578,1.398957825869133,1.6816914627054256,2.2762899330007693,0.029100034646499347,-1.1935718490935034,-5.875557547380648,-2.722065112765417,0.0,-1.6807144755305545,-1.5482183149585602,-6.799220437609685,-3.1366325199921454
-2.027864507084487,1.514550627121041,2.1911636060027937,0.47489550964525157,0.8459269821164515,-0.48223250700232345,-8.391322115327373,3.3982667593106552,0.0,-0.07516823639850263,1.2997928227074618,-1.3455398422975429,1.6065464609384708
-2.899021223735647,-0.8923329653290142,-2.099544208949257,6.138790072787486,1.107537379646856,1.629270260337168,-1.0075282527264688,-0.9389533535244388,0.0,-0.9217881087223395,-0.166381889204476,-1.8907301510345642,0.9939827691050886
0.34171760161391396,1.9907427936738589,-1.8777427185414193,2.627718376247465,1.7690191811462004,-0.3817507088587653,-7.8235262432561195,-0.04877199842590177,0.0,-3.8664286720185905,-0.6795524562524751,-4.8931887209805405,-0.000873530734779528
0.33302175764616293,-0.7387801141491402,-2.109806974569046,-4.898776553913026,-0.14586157639370564,0.5144606575705749,-8.573317032153385,2.7224213224773566,0.0,-0.5630058186283499,-4.394188301691161,-2.012877183526519,1.420268784587673
-2.7075994047300895,1.327775156004991,1.6445141602010875,-3.432559062314424,-0.43552974093661856,0.22414098802893168,-6.600052637787056,0.08507029635676544,0.0,-3.5571950644144508,7.563821990376418,-4.729158015838225,0.9213954243432367
-1.8794165622004697,1.0899456823065514,-2.045875640078578,-3.18965412438833,-2.2037943620722924,5.63703151052806,-6.8302571598540425,0.5967321877615723,0.0,-3.8536025815970523,1.7004402592560754,-2.5322393365553943,3.716282492644682
2.899571422308913,5.478709324702679,-4.7532905823247145,-5.519186927629242,1.651297768734803,1.391183957290931,-8.103398712449136,1.2032939611551918,0.0,-3.562241223825684,-1.3287344959484513,-3.308384412314035,1.6710356356771139
-0.42248191819936914,2.8598752155977465,0.8043116153113256,-2.2050836249078616,1.5993895049197715,1.5378215667669994,-5.397450869050237,-2.375248721862329,0.0,-2.862708764566069,-0.1343166615563699,-4.238747812342014,3.710657511555588
-1.2768918421698132,4.974858457249439,1.744972927638434,0.034175773525326886,-2.0905551542026455,2.378596431495167,-3.568336078156168,-4.448009818144127,0.0,-5.424813918489533,-0.18709454024199879,0.17513810473608038,4.4461403959339645
0.9885991243355942,-1.0218581221196315,0.21172983131023124,0.04183083031912584,-1.6092933988287426,-1.2509924245130983,-3.1640662366477748,-1.5414094417740045,0.0,-0.8051349763571435,-0.04147177205455087,-3.7453387238029503,1.5750469639887914
0.8721325219630607,0.9526470500558684,3.031069259288935,0.8466167423559786,-0.41929657382777463,-3.2994583662806716,-6.279259776669611,-4.674529770075911,0.0,4.576906048666864,-2.097775027404315,-3.974612442846868,-0.3793693823187917
-1.0910061812314638,-2.0624096222863093,0.6368936972250288,-0.6824774061606514,1.725400933378069,-1.553713682298493,-7.703521359408703,0.6672676102360238,0.0,-1.9007257975585514,-4.479644729062197,-0.30758150232765513,0.9875877037841945
-1.977532961972848,1.2267188482372768,0.17530700308057615,-0.6477525242323852,-0.8392638264688312,1.2367197599477513,-4.739363373168927,-0.47531549707762144,0.0,-2.1663518674357625,-2.081699913373546,1.0263701608102591,0.40631180117437704
-1.669891595209355,-0.9585033533708441,0.18832459391801148,-4.581766294171627,2.632587652668273,-3.1063283853176364,0.0,-0.7853662010607197,-3.165355772236876,0.8528495070680804,-1.2619662778480405,-1.9565233508121156,0.0
-1.5925745491787135,-4.361372379783007,2.372749822127507,-7.855631921729471,0.5045744807374825,-0.08207311279229854,0.0,1.564912520982224,-2.3947300515540566,-0.06602980311341478,-1.0520519253648466,-2.0811153380652048,0.0
-2.280026856656921,-3.5669248838685417,0.8027718932702086,-4.423115093267902,-0.3110592163791334,1.706829075705489,0.0,-1.9380050042598433,-1.5732573938819334,-2.3263272710368765,-1.056427206067835,-1.8678389745250956,0.0
-0.17420486813140315,2.520728675958854,-6.564895375162529,-1.401828789231388,1.3181175714452134,0.35788908574691175,0.0,4.193763438817805,-6.402660262256914,-1.4081214656924554,-0.9008946734684063,-1.9787200936020628,0.0
-3.237008546220372,0.16655764624015185,-4.411607291129892,-7.311936451678627,3.191896794167525,0.8001336995234712,0.0,-0.2698342968397122,-3.1984285824527414,-0.758655184696424,-1.1280104251351095,-1.1152357320593815,0.0
