-2.643639737606758,-1.4233522835306762,1.1521877950376769,1.6176484698844265,-0.5603175311192362,0.4513056657399667,-2.9499259114894847,0.7218478523028976,0.0,-1.4046483680329183,1.2296689050814673,-3.3668688343588924,0.39419555935296957
0.12430712007670001,-0.459649670959919,0.8066152363577297,0.5481995787181165,-0.46552659735096713,-1.2004835611352012,-2.8184513858459765,-2.1324112238951516,0.0,-0.7131684042107937,-0.825159753732215,-2.880070037211272,0.38522242745996477
0.4441703469663001,-1.4627551645040882,0.5625938664153666,0.7130208688556852,-0.6401322032927806,-0.07158198251881043,-5.588534229144733,-1.33058276381529,0.0,-2.1804196777817904,0.8806404502788974,-1.599217958088957,1.4995137659875308
0.3069163528223537,1.4760060906258445,0.12889500240472737,-0.31031703842353436,0.8351637169023292,0.9918169371885637,-2.662823355520724,-1.790967436035574,0.0,-2.740749293933382,0.4094954217829548,-1.3320474411989807,0.3161140480971827
-1.1657131490767434,0.32971981319923666,-0.9571645124317191,2.293615983443925,-0.6727429493948779,0.10594372862910986,-3.952076240662171,-0.9870763743238131,0.0,-0.7428524293414885,-0.6619205353200491,-2.2972098424560663,0.42999756190629584
0.07304877415821154,0.22940863690375024,-0.8969353601817456,0.5973705094697612,-0.012189399241887633,2.058289050659161,-3.9919034955509076,-2.006663076750524,0.0,-0.5103003412330417,-0.9739287927809491,-0.999361716287495,-0.9019358316225567
0.544222733996149,1.1694454358641269,0.09661295902627857,0.25608800999546305,-0.04704992033034218,-0.8298923930992003,-2.1273991591634016,-2.0659718366137643,0.0,-3.0981920340918028,-0.1943528543138589,-0.565433612260855,1.1121298397843884
0.04057430446098694,2.795326249053562,1.5162986953077637,-0.49881606588163124,-0.942839251442374,0.8401796430295394,-2.0575704976153677,-1.924307480208006,0.0,-1.1230426717140751,-1.086183492799779,-1.4726626332764543,-0.2679090836718944
1.26157175974251,-0.656408499396472,-0.4398374309360436,-0.6007870803680865,-1.0505085459221777,-0.43227762119201296,-3.9194670302637906,-2.046741874191831,0.0,-1.8361672167062908,0.8813590635451217,-4.474677712883769,1.371437821566823
0.37816490149156723,0.44255819258579593,0.3693259634586752,-1.211156396201577,-0.027575872852564104,2.497726210852212,-5.712973134821707,-2.6639543641509063,0.0,0.7620695618827165,2.1895675383933733,-3.50132754522747,-1.3584205054061713
-0.4858231568797521,0.4862631305557055,2.193755617421038,-1.8476621649963405,2.2642643145995445,-0.44713494220913513,-3.3893461493431762,0.3074068093661773,0.0,-1.9190374652449476,0.2262211073293966,-2.9225147147290866,-0.598379765418459
-0.5511352183497491,-0.4454647634202345,0.9175062513701273,0.33158588500798863,-0.7232665348468101,1.0460883162328976,-2.974256882096126,-1.6208221969571361,0.0,-2.1342856024685535,0.6577368840153436,-2.6064307274718788,-0.9849992270212866
0.7420751313553222,-2.0110226109486358,2.5448927021905012,-2.759926417164731,0.32011226130549314,0.6332197666484499,-2.9330673649606886,-0.16241985568222145,0.0,-2.277194216259376,-2.4330886454589904,-2.8123698626544713,0.6475887518046183
1.2776441963379253,-0.6440747881585421,0.5635770708760042,-0.664220939302011,-0.6673913107299673,-0.6123605166072142,-5.432210286382741,-2.8082558741469765,0.0,-1.6424034209440002,-0.30058640317361884,-2.605337103416107,0.23494764994911724
2.1078667356287335,0.5326676714523765,0.08825583390909068,-1.767004654662633,0.017149344606691073,0.5218493994539015,-4.339939227423606,-2.4588015945109625,0.0,-1.6728713883725481,-2.0979149851043517,-5.734530963943906,0.29598621385936963
-0.40871000877410985,0.8438167372993671,-0.896805364353582,1.223059442552324,1.7108991628435495,1.1124860070193727,-5.599653009288625,-3.2813226764736996,0.0,-2.0524475005575136,-0.16636870541479654,-4.493782970359133,0.11588704783763643
1.7456585496723396,1.0316793751009945,0.7871109931905261,-1.4140043195872631,-0.6135383000899054,-0.6553591523076477,-2.4675527965776007,-2.5090058244643316,0.0,-2.274553307301093,-1.6189478783238895,-1.1173861866185195,-1.39930957856145
-0.6166483854144075,0.16585186454842027,0.15887745496822814,0.904070648679205,0.6488915489748482,0.3505709135761488,-3.8871653327245164,-1.835790571099482,0.0,0.9165096145883626,-1.4219207103118991,-4.810122947847293,-1.5404860594326004
0.054793236023785566,-2.162862086460713,0.524800827929646,0.37498938747870475,1.230602420265858,0.3331027855587492,-4.468250336765477,-1.2130498835824979,0.0,-1.9580062952511885,0.3862602385527716,-4.343756053613183,-0.9068446614265682
-0.17042929655486425,-0.7883445731098736,2.857613104310588,-0.4154554979185902,-1.1662292997412351,2.029781306290277,-5.726168669510991,-2.1636550922825433,0.0,-0.9015770816904602,-1.246233100837554,-1.2642785193392911,-0.2223419538018377
-0.06522597072776497,1.2243602395435487,0.5237651290141655,0.1137391660854353,-0.19545448850776245,1.3439662479093046,-4.507198590367318,-2.0651366762311505,0.0,-1.5433223766400328,0.13254112456482597,-1.6899642690112875,0.04824178082131281
0.37453156369296753,-0.314187731987059,0.8023774591072845,-0.3237858386367106,1.3442889989192164,-2.669901753077923,-2.9806221838296203,-0.9068584064954911,0.0,-1.4716432958990602,0.9068817305436436,-1.5611800885862388,0.722336134355229
-0.4350256751988557,-2.9248578456176495,0.006565278225568883,-0.8126837936922942,-0.9432100489863704,-2.8852817290630943,-1.2602014833169912,-0.44200420767546905,0.0,0.7455998999565635,0.3336972725335844,-4.9996417118147924,0.027721946373349342
1.3074874126290577,-1.6638257275534925,-1.1991128125978163,0.24192090344801784,-0.5468100694217127,0.7724318862132122,-2.3217897119967263,-3.2613127795548165,0.0,-3.855888239307558,-0.3509214704408241,-3.679216060361174,1.2222577886624193
1.3575907556441353,1.7299318689176406,-1.204932986734206,-1.8322109964695914,0.8811803859557719,1.6285034055514909,-1.5118647926975615,-1.8464522930268676,0.0,-0.6010978215368685,0.10146005570551217,-4.211663487063884,2.481304625004668
-0.4572704387362185,-1.7376536447368132,3.9429531027399207,-1.4180535615837568,-0.9514113709166617,-1.1366250950820196,-5.998526264524334,-0.35326676130866885,0.0,-1.2382004355887786,-0.25910058478509823,-4.562855059754522,0.40965522821981737
1.2028668724133462,-1.1160246684268544,1.4877035531831748,-0.4809872941581327,-1.7809256793199981,-2.7140893422221297,-3.373015755186567,-1.4756897526177803,0.0,-1.6938444388147853,-0.5755127636864611,-2.649546197435267,-0.10568264811072446
1.0080874849079526,0.23906548311134249,-2.1044645117167935,0.9863869109327306,-0.5625311805232486,0.4873913454077416,-4.1501252180657655,-2.319517296050458,0.0,-0.8037489602308305,0.07475097136275854,-4.4097908004155615,0.039996744484927835
1.20955180339481,0.0672399037407432,-0.24048336286515237,-2.0890435777173857,0.04688786134709258,2.025573337263873,-2.1150008689842617,-1.5825280262491146,0.0,-0.797623234702953,1.8698362198537402,-3.1860721336135085,1.360265873726403
-0.532762817806435,2.1953523593526927,0.34343707992733397,0.9400302733648097,-2.6909007611684927,0.862610397530572,-4.802223833444415,-0.17189516634339747,0.0,-2.6410476887497407,-0.7076117171513048,-1.6435432709608657,0.2344698746767784
-1.334530342137133,-1.179459675096983,-0.8240647669313161,-0.7733241251585173,-0.6437886464901231,-0.99420369621365,-1.712973772364014,0.12365120052924397,0.0,-0.004739120699580241,1.7962740962705162,-2.9110585620783396,-0.22459408975559814
1.3855428327878803,-2.0895938510243366,0.3021618895976344,-0.2738567096386674,-1.023752173632668,-1.6419609962097064,-4.5396028934248625,-1.078515275464026,0.0,-1.951062905998551,-0.3801684280489623,-4.420712783595516,0.31940958650026646
0.24152368265433233,1.8762044212283162,0.6818853055788936,-4.037877838641309,0.5186120674868784,-0.5946874556250306,0.0,1.2261361041743941,1.4153424988803045,-0.5750759014331936,-2.5254157452282966,-1.4751542866920029,0.0
0.4009662680073138,-3.123273863942938,-0.4498754244463539,-4.718110161650055,2.4682151331472997,0.013187065343946555,0.0,1.5930557942006247,1.4793187736733964,-0.6120501536688149,-1.5618494806742733,-1.491877754813574,0.0
0.24255374859696896,0.509115833596889,-0.2523759003108978,-4.018654019115509,1.1967109794508108,1.0128700586192336,0.0,-0.3319435843022479,-2.0548560453997444,0.9460792352550247,-0.35466516648430024,-0.4837309524063345,0.0
-1.268990821950865,-1.4746425685023248,-1.0572981489151063,-1.6583912487499821,-1.1796501576830654,0.03456082279786804,0.0,-0.8263924280142483,0.37946702938481947,-0.13685460174733322,-0.0477612376187578,-0.006311901410205906,0.0
0.7536096088469699,-0.4497816682298949,0.44642903755534524,-1.6041305515573552,-1.6452673711775323,1.2251707663506834,0.0,-1.5267211455137955,-0.015454662971595604,-0.5800308241845046,-2.199345327419743,-1.243296245437612,0.0
-1.2814668745613431,-1.8062383220523626,1.40323829828474,-3.8732938224026974,-0.2014218077683843,0.21697704990366948,0.0,0.8300312749287588,0.7771289668408101,2.325351678266404,-0.9829251804330983,1.3996822862031404,0.0
1.7815927497502055,-0.7871088176977475,0.444627890627159,-5.058717232525844,-0.2325613797658736,-2.1150667494435305,0.0,-0.8554847936990525,2.6627977541451133,0.32669269890517644,-1.2613088018177405,0.6533735825956147,0.0
0.5995779955337366,1.9998220781658123,0.5748954097240133,-3.810662527522804,-1.5087519532626783,0.9826351944801966,0.0,0.2662712774051813,0.784098538815837,-0.9689137094836995,1.727355448298987,1.1923626202704833,0.0
-0.72247017234615,-0.6856656555075213,-0.7248805993442613,-2.576962450608751,-1.5060398968214954,0.6790949100385122,0.0,-1.7472692226482662,0.8702174841470744,0.031639097208880515,-1.4254391353208675,-0.6553924609348915,0.0
-0.026259873293602565,-0.5708215626822337,-0.0025029169336247582,-3.4615345281066308,-1.710075457561131,-1.5791060878534136,0.0,1.1298134709724625,-0.1530642452694556,-0.7907556212971714,-0.2658398063324201,-1.5360254418106583,0.0
